genomestart 1
trait 1 0.0970703 0.00280173 0 0 0.00966515 0 0 0
trait 2 0.179688 0 0.0698419 0.00760081 0.015101 0.000960449 0.00907916 0.0111408
trait 3 0.43125 0.00691724 0 0.0792075 0 0 0.020273 0
node 1 3 1 3
node 2 3 1 1
node 3 3 1 1
node 4 3 1 1
node 5 3 1 1
node 6 3 1 1
node 7 3 1 1
node 8 3 1 1
node 9 3 1 1
node 10 3 1 1
node 11 3 1 1
node 12 3 1 1
node 13 3 1 1
node 14 3 1 1
node 15 3 1 1
node 16 3 1 1
node 17 3 1 1
node 18 3 1 1
node 19 3 1 1
node 20 3 1 1
node 21 3 1 1
node 22 3 1 1
node 23 3 1 1
node 24 3 1 1
node 25 3 1 1
node 26 3 1 1
node 27 3 1 1
node 28 3 1 1
node 29 3 1 1
node 30 3 1 1
node 31 3 1 1
node 32 3 1 1
node 33 3 1 1
node 34 3 1 1
node 35 3 1 1
node 36 3 1 1
node 37 3 1 1
node 38 3 1 1
node 39 3 1 1
node 40 3 1 1
node 41 3 1 1
node 42 3 1 1
node 43 3 1 1
node 44 3 1 1
node 45 3 1 1
node 46 3 1 1
node 47 3 1 1
node 48 3 1 1
node 49 3 1 1
node 50 3 1 1
node 51 3 1 1
node 52 3 0 2
node 53 3 0 2
gene 3 1 52 0.0 0 1 0.0 1
gene 3 1 53 0.0 0 2 0.0 1
gene 3 2 52 1.0 0 3 0.0 1
gene 3 3 53 1.0 0 4 0.0 1
genomeend 1
