genomestart 1
trait 1 0.0970703 0.00280173 0 0 0.00966515 0 0 0
trait 2 0.179688 0 0.0698419 0.00760081 0.015101 0.000960449 0.00907916 0.0111408
trait 3 0.43125 0.00691724 0 0.0792075 0 0 0.020273 0
node 1 3 1 3
node 2 3 1 1
node 3 3 1 1
node 4 3 1 1
node 5 3 1 1
node 6 3 1 1
node 7 3 1 1
node 8 3 1 1
node 9 3 1 1
node 10 3 1 1
node 11 3 1 1
node 12 3 1 1
node 13 3 1 1
node 14 3 1 1
node 15 3 1 1
node 16 3 1 1
node 17 3 1 1
node 18 3 1 1
node 19 3 1 1
node 20 3 1 1
node 21 3 1 1
node 22 3 1 1
node 23 3 1 1
node 24 3 1 1
node 25 3 1 1
node 26 3 1 1
node 27 3 1 1
node 28 3 1 1
node 29 3 1 1
node 30 3 1 1
node 31 3 1 1
node 32 3 1 1
node 33 3 1 1
node 34 3 1 1
node 35 3 1 1
node 36 3 1 1
node 37 3 1 1
node 38 3 1 1
node 39 3 1 1
node 40 3 1 1
node 41 3 1 1
node 42 3 1 1
node 43 3 1 1
node 44 3 1 1
node 45 3 1 1
node 46 3 1 1
node 47 3 1 1
node 48 3 1 1
node 49 3 1 1
node 50 3 1 1
node 51 3 1 1
node 52 3 0 2
node 53 3 0 2
node 54 3 0 2
node 55 3 0 2
node 56 3 0 2
node 57 3 0 2
node 58 3 0 2
node 59 3 0 2
node 60 3 0 2
node 61 3 0 2
node 62 3 0 2
node 63 3 0 2
node 64 3 0 2
node 65 3 0 2
node 66 3 0 2
node 67 3 0 2
node 68 3 0 2
node 69 3 0 2
node 70 3 0 2
node 71 3 0 2
node 72 3 0 2
node 73 3 0 2
node 74 3 0 2
node 75 3 0 2
node 76 3 0 2
node 77 3 0 2
node 78 3 0 2
node 79 3 0 2
node 80 3 0 2
node 81 3 0 2
node 82 3 0 2
node 83 3 0 2
node 84 3 0 2
node 85 3 0 2
node 86 3 0 2
node 87 3 0 2
node 88 3 0 2
node 89 3 0 2
node 90 3 0 2
node 91 3 0 2
node 92 3 0 2
node 93 3 0 2
node 94 3 0 2
node 95 3 0 2
node 96 3 0 2
node 97 3 0 2
node 98 3 0 2
node 99 3 0 2
node 100 3 0 2
node 101 3 0 2
gene 3 1 52 0.0 0 1 0.0 1
gene 3 1 53 0.0 0 2 0.0 1
gene 3 1 54 0.0 0 3 0.0 1
gene 3 1 55 0.0 0 4 0.0 1
gene 3 1 56 0.0 0 5 0.0 1
gene 3 1 57 0.0 0 6 0.0 1
gene 3 1 58 0.0 0 7 0.0 1
gene 3 1 59 0.0 0 8 0.0 1
gene 3 1 60 0.0 0 9 0.0 1
gene 3 1 61 0.0 0 10 0.0 1
gene 3 1 62 0.0 0 11 0.0 1
gene 3 1 63 0.0 0 12 0.0 1
gene 3 1 64 0.0 0 13 0.0 1
gene 3 1 65 0.0 0 14 0.0 1
gene 3 1 66 0.0 0 15 0.0 1
gene 3 1 67 0.0 0 16 0.0 1
gene 3 1 68 0.0 0 17 0.0 1
gene 3 1 69 0.0 0 18 0.0 1
gene 3 1 70 0.0 0 19 0.0 1
gene 3 1 71 0.0 0 20 0.0 1
gene 3 1 72 0.0 0 21 0.0 1
gene 3 1 73 0.0 0 22 0.0 1
gene 3 1 74 0.0 0 23 0.0 1
gene 3 1 75 0.0 0 24 0.0 1
gene 3 1 76 0.0 0 25 0.0 1
gene 3 1 77 0.0 0 26 0.0 1
gene 3 1 78 0.0 0 27 0.0 1
gene 3 1 79 0.0 0 28 0.0 1
gene 3 1 80 0.0 0 29 0.0 1
gene 3 1 81 0.0 0 30 0.0 1
gene 3 1 82 0.0 0 31 0.0 1
gene 3 1 83 0.0 0 32 0.0 1
gene 3 1 84 0.0 0 33 0.0 1
gene 3 1 85 0.0 0 34 0.0 1
gene 3 1 86 0.0 0 35 0.0 1
gene 3 1 87 0.0 0 36 0.0 1
gene 3 1 88 0.0 0 37 0.0 1
gene 3 1 89 0.0 0 38 0.0 1
gene 3 1 90 0.0 0 39 0.0 1
gene 3 1 91 0.0 0 40 0.0 1
gene 3 1 92 0.0 0 41 0.0 1
gene 3 1 93 0.0 0 42 0.0 1
gene 3 1 94 0.0 0 43 0.0 1
gene 3 1 95 0.0 0 44 0.0 1
gene 3 1 96 0.0 0 45 0.0 1
gene 3 1 97 0.0 0 46 0.0 1
gene 3 1 98 0.0 0 47 0.0 1
gene 3 1 99 0.0 0 48 0.0 1
gene 3 1 100 0.0 0 49 0.0 1
gene 3 1 101 0.0 0 50 0.0 1
gene 3 2 52 1.0 0 51 0.0 1
gene 3 3 53 1.0 0 52 0.0 1
gene 3 4 54 1.0 0 53 0.0 1
gene 3 5 55 1.0 0 54 0.0 1
gene 3 6 56 1.0 0 55 0.0 1
gene 3 7 57 1.0 0 56 0.0 1
gene 3 8 58 1.0 0 57 0.0 1
gene 3 9 59 1.0 0 58 0.0 1
gene 3 10 60 1.0 0 59 0.0 1
gene 3 11 61 1.0 0 60 0.0 1
gene 3 12 62 1.0 0 61 0.0 1
gene 3 13 63 1.0 0 62 0.0 1
gene 3 14 64 1.0 0 63 0.0 1
gene 3 15 65 1.0 0 64 0.0 1
gene 3 16 66 1.0 0 65 0.0 1
gene 3 17 67 1.0 0 66 0.0 1
gene 3 18 68 1.0 0 67 0.0 1
gene 3 19 69 1.0 0 68 0.0 1
gene 3 20 70 1.0 0 69 0.0 1
gene 3 21 71 1.0 0 70 0.0 1
gene 3 22 72 1.0 0 71 0.0 1
gene 3 23 73 1.0 0 72 0.0 1
gene 3 24 74 1.0 0 73 0.0 1
gene 3 25 75 1.0 0 74 0.0 1
gene 3 26 76 1.0 0 75 0.0 1
gene 3 27 77 1.0 0 76 0.0 1
gene 3 28 78 1.0 0 77 0.0 1
gene 3 29 79 1.0 0 78 0.0 1
gene 3 30 80 1.0 0 79 0.0 1
gene 3 31 81 1.0 0 80 0.0 1
gene 3 32 82 1.0 0 81 0.0 1
gene 3 33 83 1.0 0 82 0.0 1
gene 3 34 84 1.0 0 83 0.0 1
gene 3 35 85 1.0 0 84 0.0 1
gene 3 36 86 1.0 0 85 0.0 1
gene 3 37 87 1.0 0 86 0.0 1
gene 3 38 88 1.0 0 87 0.0 1
gene 3 39 89 1.0 0 88 0.0 1
gene 3 40 90 1.0 0 89 0.0 1
gene 3 41 91 1.0 0 90 0.0 1
gene 3 42 92 1.0 0 91 0.0 1
gene 3 43 93 1.0 0 92 0.0 1
gene 3 44 94 1.0 0 93 0.0 1
gene 3 45 95 1.0 0 94 0.0 1
gene 3 46 96 1.0 0 95 0.0 1
gene 3 47 97 1.0 0 96 0.0 1
gene 3 48 98 1.0 0 97 0.0 1
gene 3 49 99 1.0 0 98 0.0 1
gene 3 50 100 1.0 0 99 0.0 1
gene 3 51 101 1.0 0 100 0.0 1
genomeend 1
