genomestart 1
trait 1 0.0970703 0.00280173 0 0 0.00966515 0 0 0
trait 2 0.179688 0 0.0698419 0.00760081 0.015101 0.000960449 0.00907916 0.0111408
trait 3 0.43125 0.00691724 0 0.0792075 0 0 0.020273 0
node 1 0 1 3
node 2 0 1 1
node 3 0 1 1
node 4 0 1 1
node 5 0 1 1
node 6 0 1 1
node 7 0 1 1
node 8 0 1 1
node 9 0 1 1
node 10 0 1 1
node 11 0 1 1
node 12 0 1 1
node 13 0 1 1
node 14 0 1 1
node 15 0 1 1
node 16 0 1 1
node 17 0 1 1
node 18 0 1 1
node 19 0 1 1
node 20 0 1 1
node 21 0 1 1
node 22 0 1 1
node 23 0 1 1
node 24 0 1 1
node 25 0 1 1
node 26 0 1 1
node 27 0 1 1
node 28 0 1 1
node 29 0 1 1
node 30 0 1 1
node 31 0 1 1
node 32 0 1 1
node 33 0 1 1
node 34 0 1 1
node 35 0 1 1
node 36 0 1 1
node 37 0 1 1
node 38 0 1 1
node 39 0 1 1
node 40 0 1 1
node 41 0 1 1
node 42 0 1 1
node 43 0 1 1
node 44 0 1 1
node 45 0 1 1
node 46 0 1 1
node 47 0 1 1
node 48 0 1 1
node 49 0 1 1
node 50 0 1 1
node 51 0 1 1
node 52 0 0 2
node 53 0 0 2
node 54 0 0 2
node 55 0 0 2
node 56 0 0 2
node 57 0 0 2
node 58 0 0 2
node 59 0 0 2
node 60 0 0 2
node 61 0 0 2
node 62 0 0 2
node 63 0 0 2
node 64 0 0 2
node 65 0 0 2
node 66 0 0 2
node 67 0 0 2
node 68 0 0 2
node 69 0 0 2
node 70 0 0 2
node 71 0 0 2
node 72 0 0 2
node 73 0 0 2
node 74 0 0 2
node 75 0 0 2
node 76 0 0 2
node 77 0 0 2
node 78 0 0 2
node 79 0 0 2
node 80 0 0 2
node 81 0 0 2
node 82 0 0 2
node 83 0 0 2
node 84 0 0 2
node 85 0 0 2
node 86 0 0 2
node 87 0 0 2
node 88 0 0 2
node 89 0 0 2
node 90 0 0 2
node 91 0 0 2
node 92 0 0 2
node 93 0 0 2
node 94 0 0 2
node 95 0 0 2
node 96 0 0 2
node 97 0 0 2
node 98 0 0 2
node 99 0 0 2
node 100 0 0 2
node 101 0 0 2
node 102 0 0 2
node 103 0 0 2
node 104 0 0 2
node 105 0 0 2
node 106 0 0 2
node 107 0 0 2
node 108 0 0 2
node 109 0 0 2
node 110 0 0 2
node 111 0 0 2
node 112 0 0 2
node 113 0 0 2
node 114 0 0 2
node 115 0 0 2
node 116 0 0 2
node 117 0 0 2
node 118 0 0 2
node 119 0 0 2
node 120 0 0 2
node 121 0 0 2
node 122 0 0 2
node 123 0 0 2
node 124 0 0 2
node 125 0 0 2
node 126 0 0 2
node 127 0 0 2
node 128 0 0 2
node 129 0 0 2
node 130 0 0 2
node 131 0 0 2
node 132 0 0 2
node 133 0 0 2
node 134 0 0 2
node 135 0 0 2
node 136 0 0 2
node 137 0 0 2
node 138 0 0 2
node 139 0 0 2
node 140 0 0 2
node 141 0 0 2
node 142 0 0 2
node 143 0 0 2
node 144 0 0 2
node 145 0 0 2
node 146 0 0 2
node 147 0 0 2
node 148 0 0 2
node 149 0 0 2
node 150 0 0 2
node 151 0 0 2
gene 3 1 52 0.0 0 1 0.0 1
gene 3 1 53 0.0 0 2 0.0 1
gene 3 1 54 0.0 0 3 0.0 1
gene 3 1 55 0.0 0 4 0.0 1
gene 3 1 56 0.0 0 5 0.0 1
gene 3 1 57 0.0 0 6 0.0 1
gene 3 1 58 0.0 0 7 0.0 1
gene 3 1 59 0.0 0 8 0.0 1
gene 3 1 60 0.0 0 9 0.0 1
gene 3 1 61 0.0 0 10 0.0 1
gene 3 1 62 0.0 0 11 0.0 1
gene 3 1 63 0.0 0 12 0.0 1
gene 3 1 64 0.0 0 13 0.0 1
gene 3 1 65 0.0 0 14 0.0 1
gene 3 1 66 0.0 0 15 0.0 1
gene 3 1 67 0.0 0 16 0.0 1
gene 3 1 68 0.0 0 17 0.0 1
gene 3 1 69 0.0 0 18 0.0 1
gene 3 1 70 0.0 0 19 0.0 1
gene 3 1 71 0.0 0 20 0.0 1
gene 3 1 72 0.0 0 21 0.0 1
gene 3 1 73 0.0 0 22 0.0 1
gene 3 1 74 0.0 0 23 0.0 1
gene 3 1 75 0.0 0 24 0.0 1
gene 3 1 76 0.0 0 25 0.0 1
gene 3 1 77 0.0 0 26 0.0 1
gene 3 1 78 0.0 0 27 0.0 1
gene 3 1 79 0.0 0 28 0.0 1
gene 3 1 80 0.0 0 29 0.0 1
gene 3 1 81 0.0 0 30 0.0 1
gene 3 1 82 0.0 0 31 0.0 1
gene 3 1 83 0.0 0 32 0.0 1
gene 3 1 84 0.0 0 33 0.0 1
gene 3 1 85 0.0 0 34 0.0 1
gene 3 1 86 0.0 0 35 0.0 1
gene 3 1 87 0.0 0 36 0.0 1
gene 3 1 88 0.0 0 37 0.0 1
gene 3 1 89 0.0 0 38 0.0 1
gene 3 1 90 0.0 0 39 0.0 1
gene 3 1 91 0.0 0 40 0.0 1
gene 3 1 92 0.0 0 41 0.0 1
gene 3 1 93 0.0 0 42 0.0 1
gene 3 1 94 0.0 0 43 0.0 1
gene 3 1 95 0.0 0 44 0.0 1
gene 3 1 96 0.0 0 45 0.0 1
gene 3 1 97 0.0 0 46 0.0 1
gene 3 1 98 0.0 0 47 0.0 1
gene 3 1 99 0.0 0 48 0.0 1
gene 3 1 100 0.0 0 49 0.0 1
gene 3 1 101 0.0 0 50 0.0 1
gene 3 1 102 0.0 0 51 0.0 1
gene 3 1 103 0.0 0 52 0.0 1
gene 3 1 104 0.0 0 53 0.0 1
gene 3 1 105 0.0 0 54 0.0 1
gene 3 1 106 0.0 0 55 0.0 1
gene 3 1 107 0.0 0 56 0.0 1
gene 3 1 108 0.0 0 57 0.0 1
gene 3 1 109 0.0 0 58 0.0 1
gene 3 1 110 0.0 0 59 0.0 1
gene 3 1 111 0.0 0 60 0.0 1
gene 3 1 112 0.0 0 61 0.0 1
gene 3 1 113 0.0 0 62 0.0 1
gene 3 1 114 0.0 0 63 0.0 1
gene 3 1 115 0.0 0 64 0.0 1
gene 3 1 116 0.0 0 65 0.0 1
gene 3 1 117 0.0 0 66 0.0 1
gene 3 1 118 0.0 0 67 0.0 1
gene 3 1 119 0.0 0 68 0.0 1
gene 3 1 120 0.0 0 69 0.0 1
gene 3 1 121 0.0 0 70 0.0 1
gene 3 1 122 0.0 0 71 0.0 1
gene 3 1 123 0.0 0 72 0.0 1
gene 3 1 124 0.0 0 73 0.0 1
gene 3 1 125 0.0 0 74 0.0 1
gene 3 1 126 0.0 0 75 0.0 1
gene 3 1 127 0.0 0 76 0.0 1
gene 3 1 128 0.0 0 77 0.0 1
gene 3 1 129 0.0 0 78 0.0 1
gene 3 1 130 0.0 0 79 0.0 1
gene 3 1 131 0.0 0 80 0.0 1
gene 3 1 132 0.0 0 81 0.0 1
gene 3 1 133 0.0 0 82 0.0 1
gene 3 1 134 0.0 0 83 0.0 1
gene 3 1 135 0.0 0 84 0.0 1
gene 3 1 136 0.0 0 85 0.0 1
gene 3 1 137 0.0 0 86 0.0 1
gene 3 1 138 0.0 0 87 0.0 1
gene 3 1 139 0.0 0 88 0.0 1
gene 3 1 140 0.0 0 89 0.0 1
gene 3 1 141 0.0 0 90 0.0 1
gene 3 1 142 0.0 0 91 0.0 1
gene 3 1 143 0.0 0 92 0.0 1
gene 3 1 144 0.0 0 93 0.0 1
gene 3 1 145 0.0 0 94 0.0 1
gene 3 1 146 0.0 0 95 0.0 1
gene 3 1 147 0.0 0 96 0.0 1
gene 3 1 148 0.0 0 97 0.0 1
gene 3 1 149 0.0 0 98 0.0 1
gene 3 1 150 0.0 0 99 0.0 1
gene 3 1 151 0.0 0 100 0.0 1
gene 3 2 52 1.0 0 101 0.0 1
gene 3 3 53 1.0 0 102 0.0 1
gene 3 4 54 1.0 0 103 0.0 1
gene 3 5 55 1.0 0 104 0.0 1
gene 3 6 56 1.0 0 105 0.0 1
gene 3 7 57 1.0 0 106 0.0 1
gene 3 8 58 1.0 0 107 0.0 1
gene 3 9 59 1.0 0 108 0.0 1
gene 3 10 60 1.0 0 109 0.0 1
gene 3 11 61 1.0 0 110 0.0 1
gene 3 12 62 1.0 0 111 0.0 1
gene 3 13 63 1.0 0 112 0.0 1
gene 3 14 64 1.0 0 113 0.0 1
gene 3 15 65 1.0 0 114 0.0 1
gene 3 16 66 1.0 0 115 0.0 1
gene 3 17 67 1.0 0 116 0.0 1
gene 3 18 68 1.0 0 117 0.0 1
gene 3 19 69 1.0 0 118 0.0 1
gene 3 20 70 1.0 0 119 0.0 1
gene 3 21 71 1.0 0 120 0.0 1
gene 3 22 72 1.0 0 121 0.0 1
gene 3 23 73 1.0 0 122 0.0 1
gene 3 24 74 1.0 0 123 0.0 1
gene 3 25 75 1.0 0 124 0.0 1
gene 3 26 76 1.0 0 125 0.0 1
gene 3 27 77 1.0 0 126 0.0 1
gene 3 28 78 1.0 0 127 0.0 1
gene 3 29 79 1.0 0 128 0.0 1
gene 3 30 80 1.0 0 129 0.0 1
gene 3 31 81 1.0 0 130 0.0 1
gene 3 32 82 1.0 0 131 0.0 1
gene 3 33 83 1.0 0 132 0.0 1
gene 3 34 84 1.0 0 133 0.0 1
gene 3 35 85 1.0 0 134 0.0 1
gene 3 36 86 1.0 0 135 0.0 1
gene 3 37 87 1.0 0 136 0.0 1
gene 3 38 88 1.0 0 137 0.0 1
gene 3 39 89 1.0 0 138 0.0 1
gene 3 40 90 1.0 0 139 0.0 1
gene 3 41 91 1.0 0 140 0.0 1
gene 3 42 92 1.0 0 141 0.0 1
gene 3 43 93 1.0 0 142 0.0 1
gene 3 44 94 1.0 0 143 0.0 1
gene 3 45 95 1.0 0 144 0.0 1
gene 3 46 96 1.0 0 145 0.0 1
gene 3 47 97 1.0 0 146 0.0 1
gene 3 48 98 1.0 0 147 0.0 1
gene 3 49 99 1.0 0 148 0.0 1
gene 3 50 100 1.0 0 149 0.0 1
gene 3 51 101 1.0 0 150 0.0 1
genomeend 1
