genomestart 1
trait 1 0.595611 0.261169 0.105243 0.845634 0.380743 0.0548037 0.432783 0.100769 
trait 2 0 0.188703 1 0 0.70595 1 0.82251 0.084333 
trait 3 0.929085 0.578712 0.177162 0.0930695 0.431309 0.0034577 0.189583 0.0308107 
node 1 3 1 1
node 2 2 0 2
node 3 3 0 2
node 8 2 0 0
node 11 1 0 0
node 36 2 0 0
node 37 3 0 0
node 40 1 0 0
node 44 2 0 0
node 49 1 0 0
node 54 1 0 0
node 56 1 0 0
node 63 1 0 0
node 73 1 0 0
node 75 1 0 0
node 81 1 0 0
node 87 1 0 0
node 94 1 0 0
node 96 1 0 0
node 102 1 0 0
node 113 1 0 0
node 120 3 0 0
node 127 2 0 0
node 128 1 0 0
node 135 1 0 0
node 137 1 0 0
node 143 1 0 0
node 156 1 0 0
node 157 1 0 0
node 164 1 0 0
node 170 1 0 0
node 177 1 0 0
node 178 1 0 0
node 182 1 0 0
node 192 1 0 0
node 207 1 0 0
node 216 1 0 0
node 239 1 0 0
node 252 1 0 0
node 261 1 0 0
node 270 1 0 0
gene 2 1 2 -0.838609 0 1 -0.838609 1
gene 3 1 3 0.606651 0 2 0.606651 1
gene 3 1 8 0.661019 0 18 0.661019 1
gene 3 8 3 -2.28993 0 19 -2.28993 1
gene 3 2 8 -5.95145 0 24 -5.95145 1
gene 3 2 11 0.20903 0 28 0.20903 1
gene 3 11 8 -3.7543 0 29 -3.7543 1
gene 2 2 3 0.267134 0 55 0.267134 1
gene 3 1 36 -0.960344 0 122 -0.960344 1
gene 3 36 8 -0.89421 0 123 -0.89421 1
gene 3 1 37 0.784323 0 125 0.784323 1
gene 3 37 36 2.05569 0 126 2.05569 1
gene 3 2 37 -1.44122 0 129 -1.44122 1
gene 1 37 3 -1.16785 0 135 -1.16785 1
gene 2 36 11 -2.11365 0 137 -2.11365 1
gene 3 11 3 1.79307 0 142 1.79307 1
gene 1 36 40 4.22503 0 153 4.22503 1
gene 3 40 8 -2.02296 0 154 -2.02296 1
gene 1 11 40 -1.5413 0 166 -1.5413 1
gene 1 37 44 4.21187 0 168 4.21187 1
gene 1 44 3 -1.90155 0 169 -1.90155 1
gene 2 44 49 2.86932 0 182 2.86932 1
gene 3 49 3 3.69607 0 183 3.69607 1
gene 3 40 54 2.14117 0 203 2.14117 1
gene 3 54 8 2.19399 0 204 2.19399 1
gene 3 8 56 2.12287 0 211 2.12287 1
gene 3 56 3 1.00475 0 212 1.00475 1
gene 2 44 36 -1.42661 0 215 -1.42661 1
gene 3 1 63 1.13566 0 241 1.13566 1
gene 3 63 37 -2.81986 0 242 -2.81986 1
gene 3 11 73 3.19333 0 290 3.19333 1
gene 3 73 3 6.42598 0 291 6.42598 1
gene 3 40 75 -0.939978 0 296 -0.939978 1
gene 3 75 54 -0.869794 0 297 -0.869794 1
gene 1 37 81 0.713034 0 313 0.713034 1
gene 1 81 44 -4.67896 0 314 -4.67896 1
gene 3 1 87 -1.03911 0 334 -1.03911 1
gene 3 87 8 0.241012 0 335 0.241012 1
gene 1 37 94 -0.209032 0 364 -0.209032 1
gene 1 94 3 -2.42697 0 365 -2.42697 1
gene 2 11 75 -0.302455 0 375 -0.302455 1
gene 1 44 96 1.0474 0 377 1.0474 1
gene 2 96 36 3.41795 0 378 3.41795 1
gene 3 1 102 2.23598 0 403 2.23598 1
gene 3 102 63 -0.780505 0 404 -0.780505 1
gene 2 102 73 -1.40019 0 407 -1.40019 1
gene 3 11 113 2.19889 0 435 2.19889 1
gene 3 113 8 0.78619 0 436 0.78619 1
gene 2 81 73 -0.738306 0 452 -0.738306 1
gene 2 1 120 -2.29259 0 457 -2.29259 1
gene 2 120 2 -1.80558 0 458 -1.80558 1
gene 1 81 127 -0.842161 0 486 -0.842161 1
gene 1 127 44 -4.46175 0 487 -4.46175 1
gene 3 73 128 1.28696 0 488 1.28696 1
gene 3 128 3 -0.330765 0 489 -0.330765 1
gene 3 40 87 1.48422 0 498 1.48422 1
gene 1 49 40 -7.1747 0 500 -7.1747 1
gene 3 1 135 -0.116074 0 518 -0.116074 1
gene 3 135 63 0.261585 0 519 0.261585 1
gene 3 73 137 -1.53676 0 524 -1.53676 1
gene 3 137 3 -7.5783 0 525 -7.5783 1
gene 3 73 143 1.48378 0 550 1.48378 1
gene 3 143 128 -5.15289 0 551 -5.15289 1
gene 3 73 156 -4.69019 0 592 -4.69019 1
gene 3 156 143 -3.2665 0 593 -3.2665 1
gene 1 44 157 -5.94593 0 595 -5.94593 1
gene 2 157 3 2.43168 0 596 2.43168 1
gene 1 36 164 -2.18663 0 625 -2.18663 1
gene 1 164 40 2.47142 0 626 2.47142 1
gene 2 120 40 -4.07743 0 653 -4.07743 1
gene 2 1 170 -7.1043 0 655 -7.1043 1
gene 2 170 120 -0.8359 0 656 -0.8359 1
gene 2 120 177 -5.46496 0 686 -5.46496 1
gene 2 177 2 0.257547 0 687 0.257547 1
gene 2 120 178 3.28708 0 689 3.28708 1
gene 2 178 177 -0.104051 0 690 -0.104051 1
gene 3 102 182 -0.502302 0 707 -0.502302 1
gene 3 182 63 -2.98613 0 708 -2.98613 1
gene 3 40 192 -2.7043 0 745 -2.7043 1
gene 3 192 54 -0.512838 0 746 -0.512838 1
gene 3 94 56 -2.51078 0 813 -2.51078 1
gene 3 156 207 0.0304172 0 814 0.0304172 1
gene 3 207 143 -3.63034 0 815 -3.63034 1
gene 3 207 216 1.25209 0 843 1.25209 1
gene 3 216 143 -0.855907 0 844 -0.855907 1
gene 2 178 37 0.425232 0 883 0.425232 1
gene 3 102 239 2.67983 0 930 2.67983 1
gene 3 239 182 0.885602 0 931 0.885602 1
gene 3 11 54 -0.762558 0 993 -0.762558 1
gene 3 182 252 -0.962464 0 995 -0.962464 1
gene 3 252 63 3.67578 0 996 3.67578 1
gene 3 156 261 0.0190592 0 1044 0.0190592 1
gene 3 261 207 1.39393 0 1045 1.39393 1
gene 3 1 192 0.910484 0 1078 0.910484 1
gene 1 207 56 -2.88823 0 1079 -2.88823 1
gene 3 192 270 1.06717 0 1084 1.06717 1
gene 3 270 54 -6.25865 0 1085 -6.25865 1
gene 1 2 261 0.626372 0 1119 0.626372 1
genomeend 1
