genomestart 1
trait 1 0.0970703 0.00280173 0 0 0.00966515 0 0 0
trait 2 0.179688 0 0.0698419 0.00760081 0.015101 0.000960449 0.00907916 0.0111408
trait 3 0.43125 0.00691724 0 0.0792075 0 0 0.020273 0
node 1 0 1 3
node 2 0 1 1
node 3 0 1 1
node 4 0 1 1
node 5 0 1 1
node 6 0 1 1
node 7 0 1 1
node 8 0 1 1
node 9 0 1 1
node 10 0 1 1
node 11 0 1 1
node 12 0 1 1
node 13 0 1 1
node 14 0 1 1
node 15 0 1 1
node 16 0 1 1
node 17 0 1 1
node 18 0 1 1
node 19 0 1 1
node 20 0 1 1
node 21 0 1 1
node 22 0 1 1
node 23 0 1 1
node 24 0 1 1
node 25 0 1 1
node 26 0 1 1
node 27 0 1 1
node 28 0 1 1
node 29 0 1 1
node 30 0 1 1
node 31 0 1 1
node 32 0 1 1
node 33 0 1 1
node 34 0 1 1
node 35 0 1 1
node 36 0 1 1
node 37 0 1 1
node 38 0 1 1
node 39 0 1 1
node 40 0 1 1
node 41 0 1 1
node 42 0 1 1
node 43 0 1 1
node 44 0 1 1
node 45 0 1 1
node 46 0 1 1
node 47 0 1 1
node 48 0 1 1
node 49 0 1 1
node 50 0 1 1
node 51 0 1 1
node 52 0 1 1
node 53 0 1 1
node 54 0 1 1
node 55 0 1 1
node 56 0 1 1
node 57 0 1 1
node 58 0 1 1
node 59 0 1 1
node 60 0 1 1
node 61 0 1 1
node 62 0 1 1
node 63 0 1 1
node 64 0 1 1
node 65 0 1 1
node 66 0 1 1
node 67 0 1 1
node 68 0 1 1
node 69 0 1 1
node 70 0 1 1
node 71 0 1 1
node 72 0 1 1
node 73 0 1 1
node 74 0 1 1
node 75 0 1 1
node 76 0 1 1
node 77 0 1 1
node 78 0 1 1
node 79 0 1 1
node 80 0 1 1
node 81 0 1 1
node 82 0 1 1
node 83 0 1 1
node 84 0 1 1
node 85 0 1 1
node 86 0 1 1
node 87 0 1 1
node 88 0 1 1
node 89 0 1 1
node 90 0 1 1
node 91 0 1 1
node 92 0 1 1
node 93 0 1 1
node 94 0 1 1
node 95 0 1 1
node 96 0 1 1
node 97 0 1 1
node 98 0 1 1
node 99 0 1 1
node 100 0 1 1
node 101 0 1 1
node 102 0 1 1
node 103 0 1 1
node 104 0 1 1
node 105 0 1 1
node 106 0 1 1
node 107 0 1 1
node 108 0 1 1
node 109 0 1 1
node 110 0 1 1
node 111 0 1 1
node 112 0 1 1
node 113 0 1 1
node 114 0 1 1
node 115 0 1 1
node 116 0 1 1
node 117 0 1 1
node 118 0 1 1
node 119 0 1 1
node 120 0 1 1
node 121 0 1 1
node 122 0 1 1
node 123 0 1 1
node 124 0 1 1
node 125 0 1 1
node 126 0 1 1
node 127 0 1 1
node 128 0 1 1
node 129 0 1 1
node 130 0 1 1
node 131 0 1 1
node 132 0 1 1
node 133 0 1 1
node 134 0 1 1
node 135 0 1 1
node 136 0 1 1
node 137 0 1 1
node 138 0 1 1
node 139 0 1 1
node 140 0 1 1
node 141 0 1 1
node 142 0 1 1
node 143 0 1 1
node 144 0 1 1
node 145 0 1 1
node 146 0 1 1
node 147 0 1 1
node 148 0 1 1
node 149 0 1 1
node 150 0 1 1
node 151 0 1 1
node 152 0 1 1
node 153 0 1 1
node 154 0 1 1
node 155 0 1 1
node 156 0 1 1
node 157 0 1 1
node 158 0 1 1
node 159 0 1 1
node 160 0 1 1
node 161 0 1 1
node 162 0 1 1
node 163 0 1 1
node 164 0 1 1
node 165 0 1 1
node 166 0 1 1
node 167 0 1 1
node 168 0 1 1
node 169 0 1 1
node 170 0 1 1
node 171 0 1 1
node 172 0 1 1
node 173 0 1 1
node 174 0 1 1
node 175 0 1 1
node 176 0 1 1
node 177 0 1 1
node 178 0 1 1
node 179 0 1 1
node 180 0 1 1
node 181 0 1 1
node 182 0 1 1
node 183 0 1 1
node 184 0 1 1
node 185 0 1 1
node 186 0 1 1
node 187 0 1 1
node 188 0 1 1
node 189 0 1 1
node 190 0 1 1
node 191 0 1 1
node 192 0 1 1
node 193 0 1 1
node 194 0 1 1
node 195 0 1 1
node 196 0 1 1
node 197 0 1 1
node 198 0 1 1
node 199 0 1 1
node 200 0 1 1
node 201 0 1 1
node 202 0 1 1
node 203 0 1 1
node 204 0 1 1
node 205 0 1 1
node 206 0 1 1
node 207 0 1 1
node 208 0 1 1
node 209 0 1 1
node 210 0 1 1
node 211 0 1 1
node 212 0 1 1
node 213 0 1 1
node 214 0 1 1
node 215 0 1 1
node 216 0 1 1
node 217 0 1 1
node 218 0 1 1
node 219 0 1 1
node 220 0 1 1
node 221 0 1 1
node 222 0 1 1
node 223 0 1 1
node 224 0 1 1
node 225 0 1 1
node 226 0 1 1
node 227 0 1 1
node 228 0 1 1
node 229 0 1 1
node 230 0 1 1
node 231 0 1 1
node 232 0 1 1
node 233 0 1 1
node 234 0 1 1
node 235 0 1 1
node 236 0 1 1
node 237 0 1 1
node 238 0 1 1
node 239 0 1 1
node 240 0 1 1
node 241 0 1 1
node 242 0 1 1
node 243 0 1 1
node 244 0 1 1
node 245 0 1 1
node 246 0 1 1
node 247 0 1 1
node 248 0 1 1
node 249 0 1 1
node 250 0 1 1
node 251 0 1 1
node 252 0 1 1
node 253 0 1 1
node 254 0 1 1
node 255 0 1 1
node 256 0 1 1
node 257 0 1 1
node 258 0 1 1
node 259 0 1 1
node 260 0 1 1
node 261 0 1 1
node 262 0 1 1
node 263 0 1 1
node 264 0 1 1
node 265 0 1 1
node 266 0 1 1
node 267 0 1 1
node 268 0 1 1
node 269 0 1 1
node 270 0 1 1
node 271 0 1 1
node 272 0 1 1
node 273 0 1 1
node 274 0 1 1
node 275 0 1 1
node 276 0 1 1
node 277 0 1 1
node 278 0 1 1
node 279 0 1 1
node 280 0 1 1
node 281 0 1 1
node 282 0 1 1
node 283 0 1 1
node 284 0 1 1
node 285 0 1 1
node 286 0 1 1
node 287 0 1 1
node 288 0 1 1
node 289 0 1 1
node 290 0 1 1
node 291 0 1 1
node 292 0 1 1
node 293 0 1 1
node 294 0 1 1
node 295 0 1 1
node 296 0 1 1
node 297 0 1 1
node 298 0 1 1
node 299 0 1 1
node 300 0 1 1
node 301 0 1 1
node 302 0 1 1
node 303 0 1 1
node 304 0 1 1
node 305 0 1 1
node 306 0 1 1
node 307 0 1 1
node 308 0 1 1
node 309 0 1 1
node 310 0 1 1
node 311 0 1 1
node 312 0 1 1
node 313 0 1 1
node 314 0 1 1
node 315 0 1 1
node 316 0 1 1
node 317 0 1 1
node 318 0 1 1
node 319 0 1 1
node 320 0 1 1
node 321 0 1 1
node 322 0 1 1
node 323 0 1 1
node 324 0 1 1
node 325 0 1 1
node 326 0 1 1
node 327 0 1 1
node 328 0 1 1
node 329 0 1 1
node 330 0 1 1
node 331 0 1 1
node 332 0 1 1
node 333 0 1 1
node 334 0 1 1
node 335 0 1 1
node 336 0 1 1
node 337 0 1 1
node 338 0 1 1
node 339 0 1 1
node 340 0 1 1
node 341 0 1 1
node 342 0 1 1
node 343 0 1 1
node 344 0 1 1
node 345 0 1 1
node 346 0 1 1
node 347 0 1 1
node 348 0 1 1
node 349 0 1 1
node 350 0 1 1
node 351 0 1 1
node 352 0 1 1
node 353 0 1 1
node 354 0 1 1
node 355 0 1 1
node 356 0 1 1
node 357 0 1 1
node 358 0 1 1
node 359 0 1 1
node 360 0 1 1
node 361 0 1 1
node 362 0 1 1
node 363 0 1 1
node 364 0 1 1
node 365 0 1 1
node 366 0 1 1
node 367 0 1 1
node 368 0 1 1
node 369 0 1 1
node 370 0 1 1
node 371 0 1 1
node 372 0 1 1
node 373 0 1 1
node 374 0 1 1
node 375 0 1 1
node 376 0 1 1
node 377 0 1 1
node 378 0 1 1
node 379 0 1 1
node 380 0 1 1
node 381 0 1 1
node 382 0 1 1
node 383 0 1 1
node 384 0 1 1
node 385 0 1 1
node 386 0 1 1
node 387 0 1 1
node 388 0 1 1
node 389 0 1 1
node 390 0 1 1
node 391 0 1 1
node 392 0 1 1
node 393 0 1 1
node 394 0 1 1
node 395 0 1 1
node 396 0 1 1
node 397 0 1 1
node 398 0 1 1
node 399 0 1 1
node 400 0 1 1
node 401 0 1 1
node 402 0 1 1
node 403 0 1 1
node 404 0 1 1
node 405 0 1 1
node 406 0 1 1
node 407 0 1 1
node 408 0 1 1
node 409 0 1 1
node 410 0 1 1
node 411 0 1 1
node 412 0 1 1
node 413 0 1 1
node 414 0 1 1
node 415 0 1 1
node 416 0 1 1
node 417 0 1 1
node 418 0 1 1
node 419 0 1 1
node 420 0 1 1
node 421 0 1 1
node 422 0 1 1
node 423 0 1 1
node 424 0 1 1
node 425 0 1 1
node 426 0 1 1
node 427 0 1 1
node 428 0 1 1
node 429 0 1 1
node 430 0 1 1
node 431 0 1 1
node 432 0 1 1
node 433 0 1 1
node 434 0 1 1
node 435 0 1 1
node 436 0 1 1
node 437 0 1 1
node 438 0 1 1
node 439 0 1 1
node 440 0 1 1
node 441 0 1 1
node 442 0 1 1
node 443 0 1 1
node 444 0 1 1
node 445 0 1 1
node 446 0 1 1
node 447 0 1 1
node 448 0 1 1
node 449 0 1 1
node 450 0 1 1
node 451 0 1 1
node 452 0 1 1
node 453 0 1 1
node 454 0 1 1
node 455 0 1 1
node 456 0 1 1
node 457 0 1 1
node 458 0 1 1
node 459 0 1 1
node 460 0 1 1
node 461 0 1 1
node 462 0 1 1
node 463 0 1 1
node 464 0 1 1
node 465 0 1 1
node 466 0 1 1
node 467 0 1 1
node 468 0 1 1
node 469 0 1 1
node 470 0 1 1
node 471 0 1 1
node 472 0 1 1
node 473 0 1 1
node 474 0 1 1
node 475 0 1 1
node 476 0 1 1
node 477 0 1 1
node 478 0 1 1
node 479 0 1 1
node 480 0 1 1
node 481 0 1 1
node 482 0 1 1
node 483 0 1 1
node 484 0 1 1
node 485 0 1 1
node 486 0 1 1
node 487 0 1 1
node 488 0 1 1
node 489 0 1 1
node 490 0 1 1
node 491 0 1 1
node 492 0 1 1
node 493 0 1 1
node 494 0 1 1
node 495 0 1 1
node 496 0 1 1
node 497 0 1 1
node 498 0 1 1
node 499 0 1 1
node 500 0 1 1
node 501 0 1 1
node 502 0 1 1
node 503 0 1 1
node 504 0 1 1
node 505 0 1 1
node 506 0 1 1
node 507 0 1 1
node 508 0 1 1
node 509 0 1 1
node 510 0 1 1
node 511 0 1 1
node 512 0 1 1
node 513 0 1 1
node 514 0 1 1
node 515 0 1 1
node 516 0 1 1
node 517 0 1 1
node 518 0 1 1
node 519 0 1 1
node 520 0 1 1
node 521 0 1 1
node 522 0 1 1
node 523 0 1 1
node 524 0 1 1
node 525 0 1 1
node 526 0 1 1
node 527 0 1 1
node 528 0 1 1
node 529 0 1 1
node 530 0 1 1
node 531 0 1 1
node 532 0 1 1
node 533 0 1 1
node 534 0 1 1
node 535 0 1 1
node 536 0 1 1
node 537 0 1 1
node 538 0 1 1
node 539 0 1 1
node 540 0 1 1
node 541 0 1 1
node 542 0 1 1
node 543 0 1 1
node 544 0 1 1
node 545 0 1 1
node 546 0 1 1
node 547 0 1 1
node 548 0 1 1
node 549 0 1 1
node 550 0 1 1
node 551 0 1 1
node 552 0 1 1
node 553 0 1 1
node 554 0 1 1
node 555 0 1 1
node 556 0 1 1
node 557 0 1 1
node 558 0 1 1
node 559 0 1 1
node 560 0 1 1
node 561 0 1 1
node 562 0 1 1
node 563 0 1 1
node 564 0 1 1
node 565 0 1 1
node 566 0 1 1
node 567 0 1 1
node 568 0 1 1
node 569 0 1 1
node 570 0 1 1
node 571 0 1 1
node 572 0 1 1
node 573 0 1 1
node 574 0 1 1
node 575 0 1 1
node 576 0 1 1
node 577 0 1 1
node 578 0 1 1
node 579 0 1 1
node 580 0 1 1
node 581 0 1 1
node 582 0 1 1
node 583 0 1 1
node 584 0 1 1
node 585 0 1 1
node 586 0 1 1
node 587 0 1 1
node 588 0 1 1
node 589 0 1 1
node 590 0 1 1
node 591 0 1 1
node 592 0 1 1
node 593 0 1 1
node 594 0 1 1
node 595 0 1 1
node 596 0 1 1
node 597 0 1 1
node 598 0 1 1
node 599 0 1 1
node 600 0 1 1
node 601 0 1 1
node 602 0 1 1
node 603 0 1 1
node 604 0 1 1
node 605 0 1 1
node 606 0 1 1
node 607 0 1 1
node 608 0 1 1
node 609 0 1 1
node 610 0 1 1
node 611 0 1 1
node 612 0 1 1
node 613 0 1 1
node 614 0 1 1
node 615 0 1 1
node 616 0 1 1
node 617 0 1 1
node 618 0 1 1
node 619 0 1 1
node 620 0 1 1
node 621 0 1 1
node 622 0 1 1
node 623 0 1 1
node 624 0 1 1
node 625 0 1 1
node 626 0 1 1
node 627 0 1 1
node 628 0 1 1
node 629 0 1 1
node 630 0 1 1
node 631 0 1 1
node 632 0 1 1
node 633 0 1 1
node 634 0 1 1
node 635 0 1 1
node 636 0 1 1
node 637 0 1 1
node 638 0 1 1
node 639 0 1 1
node 640 0 1 1
node 641 0 1 1
node 642 0 1 1
node 643 0 1 1
node 644 0 1 1
node 645 0 1 1
node 646 0 1 1
node 647 0 1 1
node 648 0 1 1
node 649 0 1 1
node 650 0 1 1
node 651 0 1 1
node 652 0 1 1
node 653 0 1 1
node 654 0 1 1
node 655 0 1 1
node 656 0 1 1
node 657 0 1 1
node 658 0 1 1
node 659 0 1 1
node 660 0 1 1
node 661 0 1 1
node 662 0 1 1
node 663 0 1 1
node 664 0 1 1
node 665 0 1 1
node 666 0 1 1
node 667 0 1 1
node 668 0 1 1
node 669 0 1 1
node 670 0 1 1
node 671 0 1 1
node 672 0 1 1
node 673 0 1 1
node 674 0 1 1
node 675 0 1 1
node 676 0 1 1
node 677 0 1 1
node 678 0 1 1
node 679 0 1 1
node 680 0 1 1
node 681 0 1 1
node 682 0 1 1
node 683 0 1 1
node 684 0 1 1
node 685 0 1 1
node 686 0 1 1
node 687 0 1 1
node 688 0 1 1
node 689 0 1 1
node 690 0 1 1
node 691 0 1 1
node 692 0 1 1
node 693 0 1 1
node 694 0 1 1
node 695 0 1 1
node 696 0 1 1
node 697 0 1 1
node 698 0 1 1
node 699 0 1 1
node 700 0 1 1
node 701 0 1 1
node 702 0 1 1
node 703 0 1 1
node 704 0 1 1
node 705 0 1 1
node 706 0 1 1
node 707 0 1 1
node 708 0 1 1
node 709 0 1 1
node 710 0 1 1
node 711 0 1 1
node 712 0 1 1
node 713 0 1 1
node 714 0 1 1
node 715 0 1 1
node 716 0 1 1
node 717 0 1 1
node 718 0 1 1
node 719 0 0 2
node 720 0 0 2
node 721 0 0 2
node 722 0 0 2
node 723 0 0 2
node 724 0 0 2
node 725 0 0 2
node 726 0 0 2
node 727 0 0 2
node 728 0 0 2
node 729 0 0 2
node 730 0 0 2
node 731 0 0 2
node 732 0 0 2
node 733 0 0 2
node 734 0 0 2
node 735 0 0 2
node 736 0 0 2
node 737 0 0 2
node 738 0 0 2
node 739 0 0 2
node 740 0 0 2
node 741 0 0 2
node 742 0 0 2
node 743 0 0 2
node 744 0 0 2
node 745 0 0 2
node 746 0 0 2
node 747 0 0 2
node 748 0 0 2
node 749 0 0 2
node 750 0 0 2
node 751 0 0 2
node 752 0 0 2
node 753 0 0 2
node 754 0 0 2
node 755 0 0 2
node 756 0 0 2
node 757 0 0 2
node 758 0 0 2
node 759 0 0 2
node 760 0 0 2
node 761 0 0 2
node 762 0 0 2
node 763 0 0 2
node 764 0 0 2
node 765 0 0 2
node 766 0 0 2
node 767 0 0 2
node 768 0 0 2
gene 3 1 719 1.0 0 1 0.0 1
gene 3 2 720 1.0 0 2 0.0 1
gene 3 3 721 1.0 0 3 0.0 1
gene 3 4 722 1.0 0 4 0.0 1
gene 3 5 723 1.0 0 5 0.0 1
gene 3 6 724 1.0 0 6 0.0 1
gene 3 7 725 1.0 0 7 0.0 1
gene 3 8 726 1.0 0 8 0.0 1
gene 3 9 727 1.0 0 9 0.0 1
gene 3 10 728 1.0 0 10 0.0 1
gene 3 11 729 1.0 0 11 0.0 1
gene 3 12 730 1.0 0 12 0.0 1
gene 3 13 731 1.0 0 13 0.0 1
gene 3 14 732 1.0 0 14 0.0 1
gene 3 15 733 1.0 0 15 0.0 1
gene 3 16 734 1.0 0 16 0.0 1
gene 3 17 735 1.0 0 17 0.0 1
gene 3 18 736 1.0 0 18 0.0 1
gene 3 19 737 1.0 0 19 0.0 1
gene 3 20 738 1.0 0 20 0.0 1
gene 3 21 739 1.0 0 21 0.0 1
gene 3 22 740 1.0 0 22 0.0 1
gene 3 23 741 1.0 0 23 0.0 1
gene 3 24 742 1.0 0 24 0.0 1
gene 3 25 743 1.0 0 25 0.0 1
gene 3 26 744 1.0 0 26 0.0 1
gene 3 27 745 1.0 0 27 0.0 1
gene 3 28 746 1.0 0 28 0.0 1
gene 3 29 747 1.0 0 29 0.0 1
gene 3 30 748 1.0 0 30 0.0 1
gene 3 31 749 1.0 0 31 0.0 1
gene 3 32 750 1.0 0 32 0.0 1
gene 3 33 751 1.0 0 33 0.0 1
gene 3 34 752 1.0 0 34 0.0 1
gene 3 35 753 1.0 0 35 0.0 1
gene 3 36 754 1.0 0 36 0.0 1
gene 3 37 755 1.0 0 37 0.0 1
gene 3 38 756 1.0 0 38 0.0 1
gene 3 39 757 1.0 0 39 0.0 1
gene 3 40 758 1.0 0 40 0.0 1
gene 3 41 759 1.0 0 41 0.0 1
gene 3 42 760 1.0 0 42 0.0 1
gene 3 43 761 1.0 0 43 0.0 1
gene 3 44 762 1.0 0 44 0.0 1
gene 3 45 763 1.0 0 45 0.0 1
gene 3 46 764 1.0 0 46 0.0 1
gene 3 47 765 1.0 0 47 0.0 1
gene 3 48 766 1.0 0 48 0.0 1
gene 3 49 767 1.0 0 49 0.0 1
gene 3 50 768 1.0 0 50 0.0 1
genomeend 1
