genomestart 49
trait 1 0.175033 1 0.349047 0.606577 1 0.874205 0.207241 1 
trait 2 0.365361 1 1 0 0.658545 0.132432 0.833731 0 
trait 3 0.509248 0.662168 0 0.794818 1 0 0 0 
node 1 3 1 3
node 2 1 1 1
node 3 2 0 2
node 4 3 0 0
node 149 3 0 0
node 1799 3 0 0
node 2074 2 0 0
node 3435 2 0 0
node 3897 1 0 0
node 4470 1 0 0
node 6873 1 0 0
node 6891 1 0 0
node 7484 1 0 0
gene 3 1 3 -4.33433 0 1 -4.33433 0
gene 2 2 3 0.0267959 0 2 0.0267959 1
gene 3 2 4 1.01545 0 4 1.01545 1
gene 1 4 3 -3.72258 0 5 -3.72258 1
gene 3 4 4 -0.514677 1 95 -0.514677 1
gene 1 1 4 -0.0432908 0 118 -0.0432908 1
gene 2 3 3 8 1 634 8 1
gene 2 3 149 -1.8445 1 1627 -1.8445 1
gene 2 149 3 -0.772695 0 1628 -0.772695 1
gene 3 2 149 1.84535 0 1970 1.84535 1
gene 2 149 4 0.820847 0 2053 0.820847 1
gene 2 3 4 -0.740096 1 2597 -0.740096 1
gene 3 1 149 -1.56588 0 3140 -1.56588 1
gene 1 149 149 1.69472 1 5852 1.69472 0
gene 1 149 4 5.51948 1 12894 5.51948 1
gene 2 4 149 1.32078 1 13323 1.32078 0
gene 3 149 1799 0.9655 1 17331 0.9655 1
gene 1 1799 4 -2.47165 0 17332 -2.47165 1
gene 3 1799 149 2.40079 0 17693 2.40079 1
gene 2 2 1799 -0.376379 0 17916 -0.376379 1
gene 2 1 1799 3.65405 0 18080 3.65405 1
gene 2 1799 3 2.38309 0 18731 2.38309 1
gene 2 149 2074 2.11509 0 20295 2.11509 1
gene 1 2074 3 -6.26088 0 20296 -6.26088 1
gene 2 2 2074 -6.69003 0 20369 -6.69003 1
gene 1 2074 2074 0.890493 1 20462 0.890493 1
gene 1 2074 4 -0.986101 0 20902 -0.986101 1
gene 2 1799 1799 6.06826 1 21222 6.06826 1
gene 3 3 1799 1.72855 1 21815 1.72855 1
gene 2 1799 2074 -0.712883 0 21821 -0.712883 1
gene 2 1 2074 -3.33587 0 22241 -3.33587 1
gene 3 2074 149 -1.75186 1 30334 -1.75186 1
gene 3 1799 4 -0.0685056 1 32249 -0.0685056 1
gene 2 3 2074 0.628759 1 33709 0.628759 1
gene 2 3 3435 -0.749279 1 34638 -0.749279 1
gene 2 3435 1799 1.8317 0 34639 1.8317 1
gene 3 149 3435 -3.92872 0 34784 -3.92872 1
gene 3 2 3435 0.687054 0 35016 0.687054 1
gene 3 3435 3435 -3.92927 1 35696 -3.92927 1
gene 1 2074 3435 -2.01803 0 35900 -2.01803 1
gene 3 1 3435 -1.62266 0 36433 -1.62266 1
gene 3 3435 4 -1.97804 0 37416 -1.97804 1
gene 3 2074 3435 2.80111 1 38578 2.80111 0
gene 1 149 3897 3.85915 0 39413 3.85915 0
gene 1 3897 3435 -1.41983 0 39414 -1.41983 1
gene 3 1799 3435 -3.32639 1 39501 -3.32639 1
gene 2 4 3897 -1.51643 0 39842 -1.51643 1
gene 1 1 3897 0.242698 0 40018 0.242698 1
gene 1 3897 2074 1.42308 1 40092 1.42308 1
gene 2 3897 3897 -7.19038 1 40188 -7.19038 1
gene 2 3435 3 2.19252 0 40660 2.19252 1
gene 1 3435 2074 0.568261 1 40758 0.568261 1
gene 1 3897 3435 -1.12233 1 40878 -1.12233 1
gene 3 2074 3897 -0.571933 0 40953 -0.571933 1
gene 3 2 3897 2.03047 0 41483 2.03047 1
gene 1 3897 3 -3.68563 0 41771 -3.68563 1
gene 1 1799 149 2.45782 1 41987 2.45782 1
gene 2 4 1799 -1.8315 1 42783 -1.8315 1
gene 2 1799 3897 3.73895 0 42820 3.73895 1
gene 3 3897 149 -0.837249 1 42930 -0.837249 1
gene 1 2 4470 2.78198 0 45162 2.78198 1
gene 3 4470 4 0.788561 0 45163 0.788561 1
gene 1 4470 4470 -0.51343 1 45329 -0.51343 1
gene 3 4470 3435 1.00366 0 45492 1.00366 1
gene 3 3 4470 1.67946 0 45647 1.67946 1
gene 3 1799 4470 1.89389 0 45972 1.89389 1
gene 1 2074 4470 -0.125493 0 46189 -0.125493 1
gene 2 1 4470 1.34199 0 46807 1.34199 0
gene 3 149 4470 2.94828 0 48071 2.94828 1
gene 2 4470 1799 -2.94504 1 48167 -2.94504 1
gene 1 4470 3897 0.15725 0 48482 0.15725 1
gene 1 149 3435 1.87877 1 49505 1.87877 1
gene 2 4470 149 0.751212 1 50850 0.751212 1
gene 3 4470 3435 2.5266 1 51167 2.5266 1
gene 2 4470 3 2.8585 1 57296 2.8585 1
gene 1 2074 1799 -0.927798 1 59717 -0.927798 1
gene 2 4 3435 -1.6452 1 59982 -1.6452 1
gene 3 3897 1799 -1.97886 1 65265 -1.97886 1
gene 2 3435 149 -0.915644 1 65752 -0.915644 1
gene 1 149 6873 -6.13349 1 67075 -6.13349 1
gene 1 6873 3435 -0.843447 0 67076 -0.843447 1
gene 1 3 6873 0.0187364 0 67139 0.0187364 1
gene 2 3435 6891 -2.54078 0 67242 -2.54078 1
gene 2 6891 3 -0.787269 0 67243 -0.787269 1
gene 1 4 6891 0.518391 0 67705 0.518391 1
gene 3 6873 4470 1.59922 0 67877 1.59922 1
gene 3 6873 149 -2.80179 1 68047 -2.80179 1
gene 1 149 6873 1.90486 0 68247 1.90486 1
gene 2 2074 6873 1.79993 0 68581 1.79993 1
gene 1 149 6891 -1.00749 0 68813 -1.00749 1
gene 2 3897 6873 -0.921693 0 68894 -0.921693 1
gene 3 6891 4470 -0.908023 0 69555 -0.908023 1
gene 2 1 6891 0.826998 0 69615 0.826998 1
gene 2 6873 6873 0.859982 1 69749 0.859982 1
gene 3 6873 3435 0.75996 1 69804 0.75996 1
gene 3 3897 6891 -1.45247 0 69941 -1.45247 1
gene 2 4 6873 0.0983345 0 70130 0.0983345 1
gene 3 1799 6891 -0.0367484 0 70516 -0.0367484 1
gene 2 2 6873 1.12268 0 70650 1.12268 1
gene 3 4470 4 0.927813 1 70924 0.927813 1
gene 3 6891 6891 4.76893 1 71144 4.76893 1
gene 3 2074 6891 0.649975 0 71349 0.649975 1
gene 1 1 6873 1.45368 0 71622 1.45368 1
gene 1 3435 1799 -0.843149 1 71772 -0.843149 1
gene 1 6891 3435 0.746785 1 72313 0.746785 1
gene 3 1799 6873 -0.0576313 0 72730 -0.0576313 1
gene 2 4 7484 1 1 73406 0 1
gene 2 7484 149 1.32078 0 73407 0 1
gene 3 4 7484 0.910934 0 73537 0.910934 1
gene 2 7484 3 -0.754568 0 73631 -0.754568 1
genomeend 49
